tree
version=v4
num_class=1
num_tree_per_iteration=1
label_index=0
max_feature_idx=29
objective=binary sigmoid:1
feature_names=Time V1 V2 V3 V4 V5 V6 V7 V8 V9 V10 V11 V12 V13 V14 V15 V16 V17 V18 V19 V20 V21 V22 V23 V24 V25 V26 V27 V28 Amount
feature_infos=[-1.9965830234571931:1.6420577336572635] [-56.407509631328999:2.45188848995359] [-72.715727562930297:22.057728990490901] [-33.680984018352497:9.3825584328211402] [-5.6006071412151002:16.8753440335975] [-42.1478983728015:34.801665876668601] [-26.1605059358433:22.5292984665587] [-43.5572415712451:36.677267945403102] [-73.216718455267397:19.587772623440401] [-13.4340663182301:15.5949946071278] [-24.588262437247501:23.7451361206545] [-4.7974734647975703:12.018913181619901] [-18.683714633344302:7.8483920756446004] [-5.7918812063208396:4.5690089585660596] [-19.214325490261398:10.526766051784699] [-4.3913070678049397:5.7845138896294603] [-14.129854517493101:7.05913181057395] [-25.162799369324802:9.2535262504728504] [-9.4987459210467708:5.0410691854118399] [-7.2135274301775896:5.5721133268796903] [-25.222345240529702:39.420904248219898] [-34.8303821448146:27.202839157315399] [-10.933143697655:10.503090089945401] [-44.807735203791303:22.528411689774899] [-2.8366269187034101:4.0163418166926803] [-10.2953970749851:6.0708503840779802] [-2.60455055280817:3.5173456116238002] [-22.565679320782699:12.1524011068287] [-11.7108956394515:33.847807818883098] [-0.35322939296682354:78.235271820760417]
tree_sizes=3349 3480 3526 3494 3505 3455 3477 3467 3466 3487 3454 3490 3482 3486

Tree=0
num_leaves=31
num_cat=0
split_feature=14 4 12 12 7 20 4 26 1 14 3 27 7 7 14 4 13 1 19 0 26 27 19 13 26 18 0 4 0 26
split_gain=3.76763e+07 2.07667e+06 1.26135e+06 796752 557663 503408 480764 532038 480200 447825 495664 440688 372786 326125 280744 607107 439330 271950 256269 245123 218837 216061 192641 342753 192569 183923 169081 153871 140982 126343
threshold=-1.7707740913736147 1.3926555578019502 -0.23781399152808447 -1.4628111473676799 -1.6382832804857448 -0.97775114581420686 1.8995097433233152 -0.11793130541578699 -2.0190822755170545 0.24165890268328452 1.2755770861303801 0.022209314718926305 3.0176764590544454 -0.73579823346428685 -0.46966779833277544 0.74199130618077958 -0.20581832189118146 1.0147703068711702 -2.4477337715769547 -0.46218688192562074 1.2012016384835602 -0.32061650233073541 -0.89248090501441291 -0.97551882934826784 -0.53456596359336839 -0.051799856836488092 -0.32288871645319067 -0.20899307318464347 -1.008524184132644 -1.0514280458449499
decision_type=2 2 2 2 2 2 2 2 2 2 2 2 2 2 2 2 2 2 2 2 2 2 2 2 2 2 2 2 2 2
left_child=3 5 9 -1 26 8 7 11 -2 10 17 21 14 25 15 20 19 -3 -15 28 22 -5 23 -7 -14 -11 -4 -10 -17 -16
right_child=1 2 4 6 -6 12 -8 -9 27 13 -12 -13 24 18 29 16 -18 -19 -20 -21 -22 -23 -24 -25 -26 -27 -28 -29 -30 -31
leaf_value=22.496505212503251 -6.4084258109605976 20.284840840627723 -6.4084258109605976 -6.4084258109605976 -6.4084258109605976 17.920254554001989 21.034776563311134 -6.4084258109605976 -6.4084258109605976 20.855785569046695 -6.4084258109605976 -6.4084258109605976 20.48307613501364 19.829024776996093 4.9408787116830277 -6.4084258109605976 -6.4084258109605976 -6.4084258109605976 -6.4084258109605976 -6.4084258109605985 15.270644553140531 19.948503547688897 -6.4084258109605976 -6.4084258109605976 -6.4084258109605976 -6.4084258109605985 18.122511677183716 21.102505584908172 19.503743656925398 -6.270727212903787
leaf_weight=254.64189790491946 3.602695268811658 18.382679524132989 0.87693780381232489 0.84413894894532759 19.990038913674653 2.3728651748970151 13.673200540244578 4.4502867287956205 0.57829559897072602 3.1760690370574598 2.1491881215479216 2.2648472413420668 2.1467257018666719 1.1001198114827255 2.5432694256305686 0.56966432137414713 3.858181085670366 1.0064069677609939 6.0418943176046032 1.2618927846197019 1.3314380510710169 9.8561956598423439 44.425185789586976 3.7131756220478556 0.96497683529741962 0.76818370609544029 3.5299514185171601 4.1967810946516675 6.6835791338235149 209.61970275617205
leaf_count=558 2087 852 508 489 11580 222 429 2578 335 111 1245 1312 91 61 897 330 2235 583 3500 731 195 523 25735 2151 559 445 316 126 414 120854
internal_value=8.14686 -2.97708 5.7404 21.574 -2.85908 -4.70385 14.0175 8.50814 7.37297 12.1712 16.374 13.6282 -5.06585 4.00602 -5.25961 -2.36303 7.58831 18.8993 -2.36694 13.9302 -4.73812 17.8692 -5.26554 3.077 12.1437 15.5458 13.241 17.7707 17.4686 -6.13633
internal_weight=630.62 344.89 57.0215 285.731 24.3969 287.868 31.0887 17.4155 8.37777 32.6245 21.5383 12.9652 279.491 11.0863 276.379 64.216 12.3733 19.3891 7.14201 8.51514 51.8427 10.7003 50.5112 6.08604 3.1117 3.94425 4.40689 4.77508 7.25324 212.163
internal_count=182052 176163 19201 5889 12404 156962 5331 4902 2548 6797 2680 2324 154414 4117 153764 32013 3710 1435 3561 1475 28303 1012 28108 2373 650 556 824 461 744 121751
is_linear=0
shrinkage=1


Tree=1
num_leaves=31
num_cat=0
split_feature=14 4 9 26 10 12 0 9 11 9 5 9 4 11 26 4 7 0 12 3 12 19 14 20 28 17 2 14 8 14
split_gain=187618 7.80235e+06 6.25102e+07 3.45378e+06 3.68155e+06 704961 1.24418e+06 3.50836e+06 236109 395603 671283 117916 171694 394166 60542.2 51490.6 77554.1 1.12147e+06 9.94888e+06 1.58184e+07 62062.1 169269 540629 819467 1.44748e+06 151665 402092 725031 920936 96481.3
threshold=-1.7707740913736147 1.8006042943557752 -0.58740102072982381 -0.11793130541578699 -0.9516955989221233 -1.4016848604320649 0.40480995387647895 -0.15933666493652496 0.82936552239236216 -0.53221940478017749 3.6139380324307004 1.0000000180025095e-35 -2.1126358692398592 -1.3917629653161847 -1.0514280458449499 1.5351403579861302 -1.6382832804857448 0.46416171190883632 -0.25559990247186293 2.1795721401234704 -0.23781399152808447 -2.4477337715769547 0.11815629077188951 -0.57431335198919797 -0.33286786375016647 2.1762507566196958 1.3157239780425403 0.26199354983193551 -0.30227431144781941 0.24165890268328452
decision_type=2 2 2 2 2 2 2 2 2 2 2 2 2 2 2 2 2 2 2 2 2 2 2 2 2 2 2 2 2 2
left_child=1 5 -3 8 -5 6 7 -1 -4 -10 -11 12 -8 -14 -2 -16 17 -17 -19 -20 21 22 -18 -24 -25 29 -27 28 -28 -23
right_child=14 2 3 4 -6 -7 11 -9 9 10 -12 -13 13 -15 15 16 20 18 19 -21 -22 25 23 24 -26 26 27 -29 -30 -31
leaf_value=-162.41430018341478 -4.0790142992026457 -10197.441074601042 -50.794972759255252 -152.23923420091265 -3499.5461410792395 -3.5496453235953029 -81.241943139342908 -2830.5761342509682 -0.050082377543164948 -1490.1444219854145 -60.943940391652852 -59.675050324314753 -0.050082377543257853 -1095.3505602790708 -0.14582311625709846 -4.1821157301509739 -21.230559694445908 -7.0761522394934833 -6353.1749097318752 -365.37758247574828 -0.050082377543284956 -12.378844515310524 -60.94384372940339 -30.496993148033624 -2129.3138658179082 -20.881596434943329 -152.28414450915719 -30.497022296657942 -1826.7639837896063 -0.63127413957091605
leaf_weight=0.0049271936373560532 11.146174352047749 0.0016670928409228116 0.024633021959619361 0.0016426923197803136 0.0016430936963661713 7.1008863679990277 0.0049266022009941679 0.001642804148462961 0.0032844005618244401 0.0016441910672715387 0.0016422017455917093 0.03941301874876868 0.0016422002809122205 0.0016433845489858268 289.72430628370995 0.91964380343094076 0.03777063126520297 0.042698110877630535 0.0016605998760237375 0.0032847239353230862 14.700976914726173 2.5996120929234641 0.004926613050802553 0.001642202726391373 0.001643760570431807 0.031202720437468856 0.0016422080322306964 0.0049266034703934203 0.0016422932967339321 5.3338675779822369
leaf_count=25 1385 563 40 11 121 4830 11 100 2 60 3 73 1 49 159139 641 39 33 214 26 8952 2233 9 2 72 33 6 6 61 3312
internal_value=-0.634849 -8.62301 -741.268 -284.194 -1826.1 -4.92075 -184.568 -829.579 -121.83 -388.131 -775.977 -95.5877 -267.945 -547.898 -0.457855 -0.329072 -2.57044 -16.4361 -252.971 -2376.03 -1.98011 -5.51843 -101.174 -468.843 -1080.4 -4.96674 -102.806 -414.123 -989.546 -4.48067
internal_weight=331.749 7.19124 0.0361567 0.0344896 0.00328579 7.15508 0.0541952 0.00657 0.0312038 0.00657079 0.00328639 0.0476252 0.00821219 0.00328558 324.558 313.411 23.6871 0.967287 0.0476434 0.00494532 22.7199 8.01888 0.0459832 0.00821258 0.00328596 7.97289 0.0394138 0.0082111 0.0032845 7.93348
internal_count=182052 5889 800 237 132 5089 259 125 105 65 63 134 61 50 176163 174778 15639 914 273 240 14725 5773 122 83 74 5651 106 73 67 5545
is_linear=0
shrinkage=0.05


Tree=2
num_leaves=31
num_cat=0
split_feature=14 4 12 14 4 21 26 27 27 7 19 0 27 18 27 27 26 19 3 12 26 14 4 20 7 26 1 20 2 23
split_gain=3.2697e+11 1.16581e+13 1.54115e+11 9.05484e+07 5.24334e+09 2.90065e+08 1.85666e+06 4.85965e+06 5.99559e+07 783290 2.95262e+07 9.58436e+07 646592 1.74362e+06 3.56559e+06 87619.2 481059 75261.4 2.31806e+06 6.55671e+07 25300.6 347210 2.50446e+06 1.87461e+07 12212.4 104839 351333 750033 2.269e+06 19513.8
threshold=-2.6219285685130749 1.8006042943557752 -1.2921086116953446 -1.8801430455446249 1.8006042943557752 2.3224321649887605 -0.11793130541578699 0.022209314718926305 -0.4074255741316784 -4.9326344908662145 0.80824867935164812 1.1034697473827957 0.022209314718926305 1.0745982477511451 -0.32061650233073541 -0.30383020832226243 0.62321084550677608 -2.4477337715769547 1.9743615216801051 -2.5489932227318195 1.2012016384835602 -0.46966779833277544 0.74199130618077958 -0.97775114581420686 3.0176764590544454 -0.53456596359336839 -2.8656302746471298 -0.97775114581420686 -5.5781040195804197 0.12203085605132651
decision_type=2 2 2 2 2 2 2 2 2 2 2 2 2 2 2 2 2 2 2 2 2 2 2 2 2 2 2 2 2 2
left_child=1 2 -1 4 5 6 7 8 -2 10 -5 -12 13 15 -15 -4 -17 18 -11 -20 24 22 23 -22 -19 26 29 -28 -29 -26
right_child=3 -3 12 9 -6 -7 -8 -9 -10 17 11 -13 -14 14 -16 16 -18 20 19 -21 21 -23 -24 -25 25 -27 27 28 -30 -31
leaf_value=544333.66148317361 -0.050002366940473525 4378895.3419963438 -0.050002366940476377 -0.72802498155211137 92381.709306584235 25268.333586531568 -0.050002366940516289 -0.050008574097476756 -12424.808506591153 -0.20635255506887706 -6.090554448763303 5463.1184374907461 -0.050002366940480138 -0.050002366940462672 -2790.1725629013199 -1138.7846738534872 -0.050002366940469473 -0.09635102151178615 5896.2275997470188 -1.9504859106875814 -4.4514642304329692 -0.46312674103513296 -4.2007840984151708 -5601.8207060651639 -3.6619475493666886 -1.69340869084214 -32.858765517177169 -0.050065958367342678 -2591.5205714324202 -64.993048492772274
leaf_weight=0.0013255811463266367 0.0088524839993628108 0.0015622315714911841 0.010320008084818253 1.5834170652820621 0.0015622315705024195 0.0011363742413195146 0.080571806240129037 0.019125181108393008 0.0010905625542178684 4.0765000579572774 0.03310991360108051 0.010566886281594634 0.046487375868309755 0.0026983507377735805 0.0019891565370286904 0.001185526226085227 0.0042605537964846008 705.38591584844153 0.0048868696093964372 0.13155069545050802 0.011360039795016874 1.6939206571367296 0.096316874453169499 0.0017226658389121194 0.055372923935885998 2.4351274428986027 0.0076188072978276011 0.0024370869505219162 0.0012926880309173105 0.016936232574161325
leaf_count=153 204 519 218 507 237 30 1744 397 314 536 75 16 982 57 153 52 90 173057 9 107 9 1113 91 197 52 1012 14 2 71 34
internal_value=10.7739 108200 10468.6 0.217545 1419.64 136.842 -123.636 -466.194 -1362.81 -0.00529947 34.6469 1317.09 -103.126 -337.399 -1184.05 -85.6768 -247.935 -0.0842751 6.57886 209.308 -0.123828 -6.03872 -92.37 -741.485 -0.108761 -3.58414 -58.6199 -317.264 -898.218 -18.0269
internal_weight=715.73 0.0698288 0.0682666 715.66 0.112339 0.110776 0.10964 0.0290682 0.00994305 715.548 1.62709 0.0436768 0.066941 0.0204536 0.00468751 0.0157661 0.00544608 713.921 4.21294 0.136438 709.708 1.80332 0.1094 0.0130827 707.905 2.51879 0.0836577 0.0113486 0.00372977 0.0723092
internal_count=182052 2224 1705 179828 2926 2689 2659 915 518 176902 598 91 1552 570 210 360 142 176304 652 116 175652 1410 297 206 174242 1185 173 87 73 86
is_linear=0
shrinkage=0.05


Tree=3
num_leaves=31
num_cat=0
split_feature=14 29 10 8 10 12 11 4 15 12 4 26 8 12 24 12 5 9 9 21 20 5 5 10 27 0 26 8 13 17
split_gain=6.925e+07 9.12015e+08 3.22767e+09 2.66937e+08 1.83771e+08 7.05483e+07 2.53081e+08 6.40044e+07 5.95859e+07 3.81278e+06 2.25345e+06 1.04106e+06 2.24706e+07 1.76588e+07 2.84737e+07 398066 200361 5.70817e+06 1.71494e+07 83141.2 35908.9 19309.6 332656 1.07444e+07 25066.9 1.5075e+06 2.18734e+07 12954.1 11110.7 191165
threshold=-1.8801430455446249 0.70526392687825035 -1.3990731667345948 -4.8656061340096484 -2.2174805328971545 0.89930907205732213 -0.4353889016490034 1.7266595107587652 1.0357628735190152 -1.4016848604320649 0.9110169280669026 1.2012016384835602 -3.4195126580267545 1.2359089610760801 -0.27796614950148796 -1.2921086116953446 4.4448673441310964 -1.0738861959749848 -1.2275174186385749 1.3212625545670302 -0.053467246920374238 -1.8930855157289297 -1.9616734786320047 -1.7669475506298749 0.49262250518407052 1.5158470677828859 -0.37532503020625296 -1.12823592554344 1.5592434609417603 -0.8664435641556304
decision_type=2 2 2 2 2 2 2 2 2 2 2 2 2 2 2 2 2 2 2 2 2 2 2 2 2 2 2 2 2 2
left_child=1 3 -3 -1 -5 7 -7 9 -9 -6 27 16 -13 -14 -15 -11 21 18 -18 -17 -8 22 -2 -24 28 -26 -27 -4 -23 -30
right_child=11 2 10 4 5 6 20 8 -10 15 -12 12 13 14 -16 19 17 -19 -20 -21 -22 24 23 -25 25 26 -28 -29 29 -31
leaf_value=24618.073737632207 -0.86933395539782199 91252.971007202752 -215.95161806068069 17171.920705866487 -2556.8123164360313 27869.147767060316 -386.25938817859759 -17234.64851069928 -1881.4796690297837 -880.67398177951748 -2848.3442234736217 2014.8079820978928 -1.0043734710357455 4017.5089569566935 -4.4528458423122395 -0.050002249965390655 -6.2144389643859057 -1.6153603833523136 2007.4024635682936 -381.73315820549527 -38.338005466503013 -0.18861896625534635 960.84637261705416 -0.67044169865132963 -0.7161525306753117 2027.0307179483352 -1.3002737206062251 -0.050002249966519613 17.085492778819898 0.10910133680190362
leaf_weight=0.0011257697988185092 8.4289441381198316 0.0012608608412847389 0.0016211087568081663 0.001576076541823567 0.0014862547395760308 0.001035707609844394 0.001035707609844394 0.001035707329720025 0.0016211076363106258 0.0013058922158961364 0.001035707609844394 0.014325743939025304 1.1896222156211695 0.0071845466736704102 0.011356417526712792 0.144503797011337 0.040549019129973551 1.3275119396944832 0.014303890427413424 0.0014409857794817063 0.002611784151667961 528.77675203820502 0.030038970813620836 0.88617732811634375 8.3544058131069274 0.01423936351784505 0.19971029739158197 0.0012158305871707721 1.6772777167988113 146.40471302231026
leaf_count=64 5359 87 48 301 172 24 35 407 100 56 90 22 1361 10 33 3613 55 561 19 45 67 155462 23 665 4107 12 149 41 439 8625
internal_value=0.343702 1027.94 21770.1 357.322 184.08 12.5357 6056.57 -174.43 -7866.61 -37.028 -852.18 0.102175 46.2026 22.86 1554.04 -11.5949 0.0212195 19.0379 518.873 -3.81855 -137.131 -0.0166172 2.24085 30.8537 -0.0473958 2.64005 133.695 -123.422 -0.0814162 0.301388
internal_weight=697.541 0.163912 0.00513351 0.158779 0.157653 0.156077 0.0046832 0.151394 0.00265681 0.148737 0.00387265 697.377 1.22249 1.20816 0.018541 0.147251 696.155 1.38236 0.0548529 0.145945 0.00364749 694.772 9.34516 0.916216 685.427 8.56836 0.21395 0.00283694 676.859 148.082
internal_count=182052 5150 266 4884 4820 4519 126 4393 507 3886 179 176902 1426 1404 43 3714 175476 635 74 3658 102 174841 6047 688 168794 4268 161 89 164526 9064
is_linear=0
shrinkage=0.05


Tree=4
num_leaves=31
num_cat=0
split_feature=14 4 26 12 10 5 8 29 7 26 5 13 12 26 12 17 14 26 27 7 3 4 7 0 14 14 12 12 11 19
split_gain=5.28358e+06 1.16345e+08 7.08295e+07 1.08457e+07 3.15197e+06 1.04115e+06 990671 650528 494908 9.21771e+07 5.58493e+08 6.6959e+08 483833 401872 2.54843e+07 9.95508e+07 237133 612933 1.58993e+06 48502.3 12397.9 25727.1 247482 932435 904962 221884 95176.5 19862.9 30876.5 34915.9
threshold=-1.7707740913736147 1.6699854890186152 -0.35941140470752891 -1.2411220465030348 -2.0175525052576142 1.807794524709845 -3.4195126580267545 0.75368075068683893 3.0176764590544454 -0.52638983709351483 -2.2795745069866444 0.32513531096939602 0.9354760948574431 1.2012016384835602 1.0535705586895701 -0.27291953981437195 -1.8801430455446249 -0.12233346542952998 0.020101205943730601 -0.87905628573314987 -2.4356727716017343 1.3926555578019502 -1.7187643745805097 -0.31486564751214824 0.71845933628481862 0.74422173702765704 -0.19195442297455947 -0.24620280639783196 0.12774889907348805 -2.4477337715769547
decision_type=2 2 2 2 2 2 2 2 2 2 2 2 2 2 2 2 2 2 2 2 2 2 2 2 2 2 2 2 2 2
left_child=1 3 -3 -1 5 -5 -6 12 13 10 -10 -12 16 20 -15 -16 -8 18 -18 -17 -2 -22 23 26 -25 -26 -23 28 29 -24
right_child=8 2 -4 4 6 -7 7 -9 9 -11 11 -13 -14 14 15 19 17 -19 -20 -21 21 22 27 24 25 -27 -28 -29 -30 -31
leaf_value=-4410.5104209066476 0.093651300845209798 -3677.9336364055935 -21412.284350396221 -2918.6379479133693 -1400.9762655334389 -850.27072950861987 -2.726368092139388 -1125.0219359789012 -28.794200681031874 -1.7613660203912387 57196.226762468395 -48.390268368707446 -1066.416861052332 -2.402015972308722 10861.674973663361 -285.29915935682993 -1822.3669456011708 -0.050001736563107593 -14.367491849034455 -20.780203733567884 -0.24372122533312052 -377.32044777253441 -0.23206248541203611 -1783.9941970386394 -39.570162628104242 -742.7336681230463 -9.9361906804688243 -0.39095675545212438 -1.0057739484417823 -9.6343497372223936
leaf_weight=0.0014624323461736579 275.08885189567843 0.0012779088346389939 0.001006433968471578 0.0011992100361624116 0.0013562455424107603 0.0012349734206509311 0.1307743433790165 0.0013778121020280301 0.012143320331074861 2.2975197508653897 0.0010093083617453294 0.0010343349064521057 0.0011253162715121326 0.68753505242713586 0.0026574361099562802 0.0022787016308143402 0.0018657562664969865 0.011906769294963038 0.0034914216127859277 0.007235825402858608 377.31771635540417 0.0018553974103474096 1.4794700824991736 0.00145743868562452 0.0025239648465458231 0.0020196047553453014 0.035363490166109735 12.381866281989085 5.9779811832201375 2.9688029829700122
leaf_count=347 6550 212 741 111 86 55 3486 137 137 1040 34 17 132 1296 18 39 122 358 102 40 148956 67 67 191 3 134 365 11112 1803 4294
internal_value=-0.113884 -289.147 -11491.3 -124.894 -84.284 -1869.26 -55.6795 -43.5595 -0.0465214 23.0488 4040.96 28223.4 -33.5702 -0.125505 37.7476 2305.6 -25.719 -199.888 -644.043 -84.1317 -0.16475 -0.342382 -1.97146 -121.505 -699.876 -352.124 -28.2506 -1.74495 -3.35291 -6.5072
internal_weight=678.427 0.158079 0.00228434 0.155794 0.154332 0.00243418 0.151898 0.150541 678.269 2.31171 0.014187 0.00204364 0.149164 675.958 0.699707 0.012172 0.148038 0.0172639 0.00535718 0.00951453 675.258 400.169 22.8513 0.0432199 0.00600101 0.00454357 0.0372189 22.8081 10.4263 4.44827
internal_count=182052 5889 953 4936 4589 166 4423 4337 176163 1228 188 51 4200 174935 1393 97 4068 582 224 79 173542 166992 18036 760 328 137 432 17276 6164 4361
is_linear=0
shrinkage=0.05


Tree=5
num_leaves=31
num_cat=0
split_feature=3 19 13 13 12 11 29 1 20 19 14 29 11 7 14 4 14 14 4 18 26 8 17 14 14 3 0 14 12 17
split_gain=429709 7.35624e+06 5.27353e+07 541235 501217 8.65994e+06 4.32388e+07 412148 250952 1.86591e+07 2.35337e+07 153945 1.07732e+07 2.27454e+07 102733 241242 92255.8 351666 2.95085e+06 71371.8 69540.7 66179.5 1.2419e+06 45161.4 135278 181332 42920.9 6.15849e+06 3.43393e+07 40841.8
threshold=-3.4252705445316445 1.6713164522032653 1.0000000180025095e-35 -1.5241078005987048 -3.5107941128239246 1.1235121905758352 -0.31726660765235165 2.1235443532238603 -2.8223187261687044 -1.2117457859644947 -0.46966779833277544 -0.35320940253585381 1.4544826621614104 -0.053049977112447889 -1.5977600005779997 1.8995097433233152 -1.5977600005779997 -1.6775143043137648 0.98684255325858661 0.73298536955161364 1.1368420061185953 -4.8656061340096484 2.1762507566196958 -0.98686245223512836 -1.5977600005779997 -2.5147715776068194 1.5868333286759413 -1.4730453340275798 0.50705445749658562 2.9790664521754104
decision_type=2 2 2 2 2 2 2 2 2 2 2 2 2 2 2 2 2 2 2 2 2 2 2 2 2 2 2 2 2 2
left_child=1 3 -3 -1 5 -2 -7 16 9 10 -6 12 -10 -14 15 -11 17 18 19 -5 -4 22 23 24 25 -13 29 28 -28 -23
right_child=4 2 20 7 8 6 -8 -9 11 14 -12 21 13 -15 -16 -17 -18 -19 -20 -21 -22 26 -24 -25 -26 -27 27 -29 -30 -31
leaf_value=61.539721408140203 -1.2002100145982946 5241.7755162198791 -196.30452762832047 -4.0697485424524986 3682.5115595187026 4578.2249194746673 -14.08882931385671 38.97265841068662 -0.6997476668343432 -43.864210444934677 -5.2172693126424852 -26.840828504737551 -2.5159964941233253 2931.8630069873334 -0.73575700223405316 -602.99202286525315 -0.5055009661600034 -0.86006946681999874 -2385.6723418989923 -371.12057763007766 -15.103591009147918 0.019416723863635049 115.64732993851474 -0.75633960670100131 -4.4702650683728082 -548.50860292724701 -11.438488679729449 -0.23948141908891774 3511.2069140369094 -22.350507277212998
leaf_weight=0.45485529514880685 0.56642604213699055 0.0054874661211669054 0.0066236672116106723 0.012438741917321746 0.0078245876251916736 0.0062500265776179722 0.028492501399672854 0.73968038716407125 1.889053193023337 0.011411832640760511 0.0096763515475487526 0.0037326276069506994 0.020276133631531593 0.0097937216216906625 1.043922254880904 0.0023216405825223782 4.1398703084910391 0.058440337794308919 0.0014880813368591721 0.0014821980030319546 0.026394342844128005 894.01010755362358 0.24429547077498082 3.1552398899027576 0.022623292264391526 0.0030084314639680088 0.043669567109948626 6.5445551376349531 0.0082205149292349233 0.20408696805009086
leaf_count=137 418 36 87 122 18 24 57 81 1092 102 25 6 32 17 318 33 2017 22 270 123 10 173620 35 1063 33 39 99 1919 20 378
internal_value=0.243263 14.2452 702.891 9.34224 0.159255 45.7988 812.048 4.54911 0.129013 24.271 1643.55 0.100368 14.2466 953.208 -2.5231 -138.385 -1.49363 -56.8865 -269.373 -43.1506 -51.4539 0.0703449 7.00348 -1.33075 -63.0516 -259.653 0.0439542 4.06236 546.625 0.0143112
internal_weight=913.282 5.44676 0.0385055 5.40826 907.835 0.601169 0.0347425 4.9534 907.234 1.07516 0.0175009 906.159 1.91912 0.0300699 1.05766 0.0137335 4.21372 0.0738494 0.015409 0.0139209 0.033018 904.24 3.4289 3.1846 0.0293644 0.00674106 900.811 6.59645 0.0518901 894.214
internal_count=182253 2905 133 2772 179348 499 81 2635 178849 496 43 178353 1141 49 453 135 2554 537 515 245 97 177212 1176 1141 78 45 176036 2038 119 173998
is_linear=0
shrinkage=0.05


Tree=6
num_leaves=31
num_cat=0
split_feature=17 26 12 24 8 16 9 14 27 0 17 1 15 0 17 1 15 0 4 14 1 9 8 14 13 21 14 14 7 13
split_gain=215753 1.60207e+06 4.56756e+06 473070 4.96428e+06 106198 5.17093e+06 7.96272e+07 1.67952e+08 41261 3.17009e+06 3.82497e+07 6.08987e+07 36907.1 1.24872e+06 1.33159e+07 6.33995e+07 215065 462237 35910.4 60619.2 25579.3 282537 2.83459e+06 79494.3 20383.5 24240.9 47283 14540.1 152665
threshold=2.9790664521754104 -0.039397048819482944 1.7750752667856602 -1.073425826494 2.3179481848431007 -2.8524421840013043 -1.4906939985933148 -0.073002986104558187 0.015559910463248753 1.5868333286759413 0.90039418902611412 1.9058007718046401 -0.56348758859729042 -1.26047171259748 2.1762507566196958 -0.3955574961497324 -0.57516079340813031 -1.2711059640810138 2.4494260484475454 -1.5977600005779997 -1.4257530661349698 4.058517669477876 -0.9947601565070433 -1.6775143043137648 -1.2408519108378748 3.5554992710948405 -0.96490235203393582 -1.4730453340275798 1.3178087592646552 -1.4927822781570999
decision_type=2 2 2 2 2 2 2 2 2 2 2 2 2 2 2 2 2 2 2 2 2 2 2 2 2 2 2 2 2 2
left_child=5 3 -3 -2 -5 6 7 8 -1 13 -11 -12 -13 14 17 -16 -17 -7 -19 20 -8 25 23 -23 -24 28 27 -27 -15 -30
right_child=1 2 -4 4 -6 9 19 -9 -10 10 11 12 -14 21 15 16 -18 18 -20 -21 -22 22 24 -25 -26 26 -28 -29 29 -31
leaf_value=21880.53612687398 -3.1351691412495795 -3764.4930611981395 -32.398169265186375 -3434.2264153839687 -16.571867589585121 -0.42098949782917572 -483.32573640579113 -0.92120955434151597 -500.19305173623127 -0.35491919433507513 -9.1947994187951139 8895.5030178868856 -65.502313223311987 -0.25467598189935886 -3.1987635256018527 6755.1612188558274 -5.4837798158786768 -0.2177232195828358 59.176092225709581 -0.26669204484308046 -0.050042019746402093 -2452.3361074683253 -204.54001788967636 -14.509277784397819 -1.602853200024573 -234.68723272566513 -10.888671204444931 -18.145316445472925 14.565908635161632 0.091934413257794528
leaf_weight=0.0013191758189350289 0.12985646795016631 0.0011157026568567032 0.0030913665318621497 0.0011647625369948294 0.012105178569519337 23.010187467305354 0.0010346061012569407 0.054384562870156368 0.0022993424208834767 6.1732262101549216 0.087481726641655586 0.0032335640085157692 0.0045834919635815534 439.78131682557768 0.22345941596632724 0.0042728997016710851 0.018403579275315461 1.0027835020317624 0.48651614574404889 2.5621847160851958 0.0017404006889599746 0.0013049048460638023 0.004890215031903066 0.013831001677462287 0.36529782543259348 0.0036226141310195846 0.23526915440433094 0.0082894543132017405 1.8294715321197816 435.43604660222644
leaf_count=45 79 142 15 359 127 16807 54 43 112 1905 180 10 36 150317 92 6 93 679 39 429 15 212 35 37 302 34 562 36 664 8787
internal_value=0.0396101 -60.4614 -1022.14 -32.1938 -316.555 0.0493914 10.0957 476.941 7658.98 0.0203926 4.06293 290.241 3641.26 -0.00768815 1.89662 113.955 1268.42 0.770822 19.1847 -0.461392 -180.23 -0.0613791 -12.9411 -224.681 -4.28367 -0.0557221 -14.412 -83.9985 -0.051676 0.152492
internal_weight=911.464 0.147333 0.00420707 0.143126 0.0132699 911.316 2.62296 0.0580031 0.00361852 908.693 6.26852 0.0952988 0.00781706 902.425 24.7456 0.246136 0.0226765 24.4995 1.4893 2.56496 0.00277501 877.679 0.385324 0.0151359 0.370188 877.294 0.247181 0.0119121 877.047 437.266
internal_count=182253 722 157 565 486 181531 698 200 157 180833 2131 226 46 178702 17716 191 99 17525 718 498 69 160986 586 249 337 160400 632 70 159768 9451
is_linear=0
shrinkage=0.05


Tree=7
num_leaves=31
num_cat=0
split_feature=14 24 18 16 12 14 7 22 14 0 27 0 14 29 20 0 0 4 16 22 12 4 11 21 0 20 16 4 12 0
split_gain=1.00203e+06 928429 1.32906e+08 121904 3.15384e+08 112942 491771 5.03808e+07 36482.1 23414 20254.2 11648.6 20127.5 26874.5 45309.3 42238.3 104158 350333 1.06461e+06 2.79643e+06 313522 633050 39774 15391.5 78357.6 79204.5 7136.15 8032.83 30128.5 46529.8
threshold=-2.6219285685130749 -1.7417893642306599 1.7592138553116352 -2.8524421840013043 -2.9649744300837093 -2.0188790816569946 1.4973842023752202 0.29648967130378256 -1.8801430455446249 1.5718506159422099 -0.35932857573487947 -0.16291166987812633 -0.48067401090487943 -0.34921131634191588 -0.094039137941427736 -1.008524184132644 -0.46218688192562074 0.74199130618077958 0.60058801461116362 0.022031472748809355 -0.048124938659554542 1.3510784530111952 0.82936552239236216 3.5554992710948405 -1.126585433523601 -0.97775114581420686 -1.7690817492712898 0.85177032564625155 0.34237704672428054 -0.95198365891821124
decision_type=2 2 2 2 2 2 2 2 2 2 2 2 2 2 2 2 2 2 2 2 2 2 2 2 2 2 2 2 2 2
left_child=1 -1 -3 4 -2 6 7 -5 9 10 -7 12 13 14 15 -10 17 -17 20 -20 21 -19 -22 -14 -25 -26 27 -15 29 -29
right_child=3 2 -4 5 -6 8 -8 -9 11 -11 -12 -13 23 26 -16 16 -18 18 19 -21 22 -23 -24 24 25 -27 -28 28 -30 -31
leaf_value=-3.2295159242143643 27373.962414157555 -17058.993618077155 -38.033173678072359 -11226.093131045538 -0.3052774590944034 -1.2771296544456965 -2.6121611680057639 -19.014625266117946 -4.1667386889502751 4.4055669314915287 -24.02240587488625 -0.028834497594950312 -0.31194592168608337 -3.9677282427411513 -3.2499867357370924 -6.930266138913364 -1.4267049176002962 -1157.0958181624073 -2561.1583970872862 -15.893810181368123 -4.096653559355361 -53.382145735484315 -136.86819137583208 -8.0081884294747034 -537.4048909998188 -31.091139677878687 -1.4256531111365884 -0.050028591830594153 -9.6705178172759858 -189.21617897173846
leaf_weight=0.12166323292376546 0.0010526166110368376 0.0011577504705034816 0.12207590197225926 0.0010110419020848962 2.609577793057678 0.4867625386941653 0.73023553016104281 0.12322047780321488 0.16999020244091195 6.4213349022715489 0.12250877954835815 770.51090491622278 102.22960766960897 0.20420155916018137 1.0157359884363719 0.079938449199853975 0.10895822330974431 0.0019878210613742072 0.0016399147856276377 0.0031558122115988851 0.024711963263075655 0.003750085502844201 0.0073089677314244544 0.025131416193175049 0.0014884971128965958 0.0016055913893549718 12.31252685171367 0.006667445494315416 0.072761387783322279 0.006343627135958041
leaf_count=19 7 1728 442 975 485 94 252 965 334 23 614 85719 74945 407 1507 146 177 49 89 7 48 15 34 108 114 69 12684 15 144 38
internal_value=-0.0842772 -101.21 -197.941 -0.0566769 10.7321 -0.0881584 -18.2576 -110.222 -0.0707888 3.51677 -5.85062 -0.0992316 -0.565717 -2.34234 -8.87045 -23.0915 -36.9908 -68.6253 -184.519 -886.255 -95.3919 -435.749 -34.4025 -0.322139 -37.2395 -274.667 -1.60824 -9.36121 -22.2017 -92.2791
internal_weight=897.529 0.244897 0.123234 897.284 2.61063 894.673 0.854467 0.124232 893.819 7.03061 0.609271 886.788 116.278 14.0197 1.41718 0.401441 0.231451 0.122493 0.0425546 0.00479573 0.0377588 0.00573791 0.0320209 102.258 0.0282255 0.00309409 12.6025 0.289974 0.0857725 0.0130111
internal_count=182253 2189 2170 180064 492 179572 2192 1940 177380 731 708 176649 90930 15694 2406 899 565 388 242 96 146 64 82 75236 291 183 13288 604 197 53
is_linear=0
shrinkage=0.05


Tree=8
num_leaves=31
num_cat=0
split_feature=17 22 14 11 12 29 7 14 7 16 4 14 25 15 25 19 2 9 5 8 16 5 28 1 3 1 17 17 27 23
split_gain=489519 2.86286e+06 799670 125992 4.45522e+06 1.56499e+08 109619 54673.6 167608 21072 1.05522e+06 1.97448e+07 1.11673e+08 18832.7 739100 3.61116e+07 14696.5 143899 90326.6 24434.5 28044.7 11193.5 21649.6 10727.3 16200.6 170003 228177 417146 556317 8372.11
threshold=2.9790664521754104 -0.84846093420046886 -2.6219285685130749 2.2130257815044607 0.65281865472295508 -0.34965110582324904 -1.7187643745805097 -2.0188790816569946 1.6787723832488204 -2.1448246201325696 0.89154531812656768 -0.43740714031002043 0.38388962286250006 1.4931205346672203 0.67919859024910212 -0.72343016965364737 4.204500573431706 -2.0012234963346796 -1.7310324577658649 -4.8656061340096484 1.065509842445435 -1.4675488869028699 0.084413248993202114 -0.14974495516358696 -3.4252705445316445 2.1051535677428252 -0.29956048911800098 -0.17937979954835398 -0.031179491222088046 -0.87908771312250134
decision_type=2 2 2 2 2 2 2 2 2 2 2 2 2 2 2 2 2 2 2 2 2 2 2 2 2 2 2 2 2 2
left_child=2 -2 -1 7 -5 -6 -3 8 -4 10 -9 12 21 16 -15 -16 23 18 -18 20 -19 22 -12 -11 25 -25 -27 -28 -29 -7
right_child=1 6 3 4 5 29 -8 9 -10 13 11 -13 -14 14 15 -17 17 19 -20 -21 -22 -23 -24 24 -26 26 27 28 -30 -31
leaf_value=-113.20332567974202 295.6090566527979 -1.4555295120626106 -51.010773969840479 -0.44066477694145584 13975.635893658724 -66.494049675916116 -68.310466818743222 -0.26509928421956425 -1.4220225484718108 -0.36561753465910446 -292.39150370349694 -0.74122241048313819 11554.783230363144 -0.49556104877522023 3204.3175062206847 -1.1019828349019958 -735.46128859196961 -276.51253677167898 -116.57988814199014 -6.3510384038726162 -19.50801835619832 -15.874241427480161 -24.551222122915178 -3.2015181639998143 0.039389217119217446 -14.894480966701133 -20.36434643871063 -1721.7831053303944 -140.57429249084262 -0.84165306454717814
leaf_weight=0.1559995048660302 0.09407391252140046 0.17983337939142049 0.2130016989928053 2.3131317669018836 0.0020617478376152567 0.005260373514881663 0.093033877112445346 11.613504219783126 0.85197269648221285 212.23841392036422 0.0011970033021766499 0.27450496835619059 0.002480723849068057 11.096113612955739 0.0089766045762901259 0.41493291919836994 0.001087825826553368 0.0018085634256472518 0.0012872235244397725 0.21416921066877234 0.0025696369598768865 0.0094664607391190952 0.0020407160416339282 0.20620122135695304 775.22741641623929 0.0067365242867034603 0.0024613184218724715 0.001161620245814783 0.0010674313021344127 0.063161227614752583
leaf_count=1826 107 86 1896 1232 28 18 529 2247 170 77474 41 124 33 5443 33 301 26 92 16 859 22 40 17 334 89044 13 6 45 8 143
internal_value=0.0133983 57.7536 -0.00747719 0.00992418 11.4918 403.092 -24.2497 -0.0171091 -11.3401 -0.00518551 2.08613 96.3458 1851.43 -0.0300932 1.97984 66.7752 -0.0535312 -12.9481 -400.041 -8.74143 -125.672 -43.3218 -123.573 -0.050647 0.0355601 -13.6045 -201.33 -469.096 -964.586 -5.88913
internal_weight=1015.3 0.366941 1014.93 1014.78 2.38362 0.0704833 0.272867 1012.39 1.06497 1011.33 11.9032 0.28969 0.0151849 999.424 11.52 0.42391 987.904 0.220922 0.00237505 0.218547 0.0043782 0.0127042 0.00323772 987.683 775.445 0.217628 0.0114269 0.00469037 0.00222905 0.0684216
internal_count=182253 722 181531 179705 1421 189 615 178284 2066 176218 2502 255 131 173716 5777 334 167939 1015 42 973 114 98 58 166924 89450 406 72 59 53 161
is_linear=0
shrinkage=0.05


Tree=9
num_leaves=31
num_cat=0
split_feature=17 19 26 14 4 21 14 14 27 1 2 11 5 7 4 18 0 3 7 19 14 16 25 6 4 4 0 0 9 17
split_gain=191556 4.90347e+07 2.7573e+08 4.25495e+06 1.51677e+07 1.79006e+06 870844 65318.9 132608 53282.6 1.65073e+07 46376.5 482183 2.02602e+06 15820 15569.4 12236.2 14977.7 67692.8 17344.9 12497.1 82421.1 201765 340290 59477.4 111301 75006.3 244303 382654 208021
threshold=2.4742930329386104 -1.5186626532684397 -0.51847380896730688 -1.4202614779661398 0.61080746700463961 0.012475959350246701 -2.3717685363486898 -2.0188790816569946 -0.35932857573487947 2.1235443532238603 0.41173681816939905 0.63534501047934611 -0.24151555664256699 -1.1451187917782397 -0.5091895500144924 0.89547046618670512 -0.16291166987812633 3.0185571607212256 -1.5137462807619397 -1.3100630132859299 -0.46966779833277544 -1.9297949912333998 0.38388962286250006 0.29432210340231257 1.4697029694713852 0.74199130618077958 -0.56589715629473902 -1.008524184132644 1.5442878875784201 0.58041686113428359
decision_type=2 2 2 2 2 2 2 2 2 2 2 2 2 2 2 2 2 2 2 2 2 2 2 2 2 2 2 2 2 2
left_child=6 2 -2 4 15 -4 -1 8 -8 16 -11 12 13 -5 -7 -3 17 20 -19 -20 21 22 -9 -24 25 -23 27 -27 29 -29
right_child=1 3 5 11 -6 14 7 9 -10 10 -12 -13 -14 -15 -16 -17 -18 18 19 -21 -22 24 23 -25 -26 26 -28 28 -30 -31
leaf_value=-112.25542843548646 28105.008614806011 -12.240937220179392 -2414.4179347376498 -2465.4606050028733 -5783.5014892139043 -0.050019821906461759 -3.867932621677546 -40.464894779177314 -74.971704250431443 -0.28253887175869624 1434.294936546419 -0.96321209804560837 -3.0186079302500639 -12.056971437492527 -221.59434501162542 -200.72713695573907 -0.0040596171731835445 -426.12284101833313 -154.95190473392046 -12.239657650259412 -0.37463849879746991 -5.055036667209496 -35.311365970473204 -1235.6888383148953 -0.29019476776770853 -6.9310845015584057 -13.064641162727794 -65.734800654364719 -900.10341377120426 -282.46833952847163
leaf_weight=0.17291919430272074 0.0010252367937937379 0.0041014176677113294 0.0011390144762744199 0.0010545900919141362 0.0014610652594356406 0.0016446802589710043 0.26228999342248549 0.01360737732545231 0.087430852954353711 5.6655376332355436 0.020123708294704445 0.33022497326182132 0.050548902323566958 0.0041642558592895063 0.0015798193067083615 0.0014949387988888799 903.1380019589302 0.001056153566237907 0.0022593635837030784 0.036916550822156675 77.281008523706063 1.8332734563819733 0.0014179829996848119 0.0010116222184227744 9.5234857997498583 0.079784824057748518 0.14164056466555838 0.044907967272977314 0.0016110064973293694 0.014693678624288886
leaf_count=2049 10 49 142 165 833 11 204 348 1177 5503 31 96 24 20 33 76 80841 46 35 402 74723 10899 23 85 2021 820 744 418 48 377
internal_value=-0.0446908 34.6171 4771.81 -30.3302 -1246.96 -710.487 -0.0585246 -0.0390876 -21.644 -0.0315153 4.79497 -8.08544 -50.2593 -507.825 -108.594 -62.5907 -0.0591752 -0.618613 -31.1192 -20.4702 -0.604816 -2.131 -115.405 -535.116 -1.97493 -9.55774 -38.7636 -64.5798 -139.719 -119.166
internal_weight=998.721 0.398439 0.00538875 0.39305 0.00705742 0.00436351 998.323 998.15 0.349721 997.8 5.68566 0.385993 0.0557677 0.00521885 0.0032245 0.00559636 992.115 88.9767 0.0402321 0.0391759 88.9364 11.6554 0.016037 0.00242961 11.6394 2.11591 0.282638 0.140997 0.0612127 0.0596016
internal_count=182253 1459 196 1263 958 186 180794 178745 1381 177364 5534 305 209 185 44 125 171830 90989 483 437 90506 15783 456 108 15327 13306 2407 1663 843 795
is_linear=0
shrinkage=0.05


Tree=10
num_leaves=31
num_cat=0
split_feature=17 14 1 0 16 1 13 3 3 4 4 7 6 1 18 1 0 1 25 14 13 12 18 15 14 19 9 1 0 15
split_gain=363002 1.9313e+07 1.73559e+07 138759 2.39874e+07 8.776e+07 18339.1 44948.6 81749.4 356202 282846 36402.9 75889.1 53328.2 31064.1 21385.7 73906.7 15912.4 101263 913680 18693.4 76902.4 162384 15716 2.16362e+06 9.19634e+07 2.168e+08 777257 1.00679e+06 431752
threshold=2.4742930329386104 -1.0345401218683348 2.0539653255425701 -1.8708882767141943 -1.8427473695022898 -1.0738927064771548 -1.4927822781570999 -3.0424731670617096 -3.4252705445316445 1.8995097433233152 -2.4410917572858897 1.3574806622164752 -0.98076386265077387 -0.40732827020295992 -0.14293168897381447 -0.58342022321704889 0.98621922805543483 -9.5862116989641191 1.0615278496807401 -1.0623108237479546 1.6787379068577153 -0.22881301438622648 -0.16490511244943548 0.90564758140150214 -1.5977600005779997 -0.93205977883155333 0.60802382866781202 -1.6952952363658498 1.1124614808154074 0.91863408796039103
decision_type=2 2 2 2 2 2 2 2 2 2 2 2 2 2 2 2 2 2 2 2 2 2 2 2 2 2 2 2 2 2
left_child=3 2 -2 4 5 -1 7 8 9 10 -5 -9 13 14 -13 -14 -17 18 19 -8 21 -20 -23 -19 25 26 -25 28 -27 -26
right_child=1 -3 -4 6 -6 -7 17 11 -10 -11 -12 12 15 -15 -16 16 -18 23 20 -21 -22 22 -24 24 29 27 -28 -29 -30 -31
leaf_value=9775.2844496142297 -8733.4428195155342 -6.0166443502064269 -0.050022024842577312 -29.8069447768498 -0.88509119917122936 -9.5260070262877665 -1252.1292480425921 -0.35672407110632243 -11.814128757689526 -13.375480014681498 -867.02793629539508 -10.296707847205726 -2.5410727540762319 -80.263841059798892 -53.301282354686911 -71.86629548212251 -6.4363504349933311 -0.03342943343396327 -14.614518337144574 -6.8604758717897845 -1.3542489973499365 -797.59779887183583 -54.525263367056496 26972.02193254434 37.832766527203169 -2020.9378613891959 -169.27762623712442 -9.6189690060320459 -62.601650041078088 -0.31864362176390121
leaf_weight=0.0029271980743555423 0.0012137321910972434 0.14230569713107019 0.0010707461624406278 0.0016746475594118229 2.0477330442033872 0.01055298549287903 0.0016372765783959102 29.555205353974827 0.071901478040281686 0.014896194450557232 0.0025372573182014246 0.17451166593232839 4.9742214678428001 0.044824134440786645 0.055298692983364789 0.04936385907807217 0.34335315620410256 725.44616909086039 0.034223196696496955 0.014682512837013214 0.37046474320713713 0.0010030507440915285 0.0027535443067673447 0.0010683028078855355 0.75514574763023645 0.0011133720294997504 0.0023636804953335935 0.10885514406971813 0.0015986793809759092 41.25674334266764
leaf_count=36 1127 329 6 11 3537 52 134 11115 82 23 76 46 307 78 67 74 52 137918 52 251 24 79 66 25 648 200 76 477 28 25252
internal_value=-0.0164499 -79.233 -4640.06 -0.00222752 12.9541 2115.23 -0.0354733 -1.15 -36.2433 -128.167 -534.15 -1.05926 -4.73973 -30.3754 -20.6448 -3.42791 -14.6608 0.0157369 -9.65909 -131.792 -4.77917 -38.1867 -252.934 0.0210908 0.959957 217.54 8279.23 -30.4499 -866.553 0.367112
internal_weight=805.491 0.14459 0.00228448 805.347 2.06121 0.0134802 803.286 35.2878 0.0910096 0.0191081 0.0042119 35.1968 5.64157 0.274634 0.22981 5.36694 0.392717 767.998 0.424764 0.0163198 0.408445 0.0379798 0.0037566 767.573 42.1269 0.114999 0.00343198 0.111567 0.00271205 42.0119
internal_count=182248 1462 1133 180786 3625 88 177161 11931 192 110 87 11739 624 191 113 433 126 165230 606 385 221 197 145 164624 26706 806 101 705 228 25900
is_linear=0
shrinkage=0.05


Tree=11
num_leaves=31
num_cat=0
split_feature=17 27 20 6 5 22 26 14 14 10 8 20 16 5 0 5 14 1 16 14 23 13 17 3 3 0 5 3 17 4
split_gain=879749 8.71784e+07 178565 3.51864e+06 5.08839e+07 2.51682e+08 12503.9 222606 1.3938e+07 14853.7 200828 14056.4 12146.7 9451.03 65532.1 2.28794e+06 6.19747e+07 1.5668e+08 25701.7 744753 3.52873e+06 9812.04 95892.8 431532 923258 178278 115734 95382.8 30137.5 96515.3
threshold=2.4742930329386104 -0.10741743048542898 3.5473124740410706 -0.084654419200273626 0.046533115032758858 -0.96657753469080487 0.23826283994722403 -1.6775143043137648 -1.8801430455446249 3.8289336330944104 -2.5069061242168695 -0.66536785690039435 -0.21465112360380098 0.77012162525382066 -0.99733189767027142 0.82025262517540221 -0.066016048476148628 -0.56987471298922188 1.6103563114168702 -1.6775143043137648 -0.19908810310764047 1.5592434609417603 -1.0394761942630046 1.5195648331656653 1.0512926349724452 -0.28502656958706379 0.20007382520949804 -0.39164659484248393 -0.8664435641556304 -0.24114773468268547
decision_type=2 2 2 2 2 2 2 2 2 2 2 2 2 2 2 2 2 2 2 2 2 2 2 2 2 2 2 2 2 2
left_child=2 -2 6 4 5 -4 9 8 -8 13 -11 -10 -7 21 15 16 17 -15 -16 20 -20 -1 23 24 25 -23 27 -27 29 -24
right_child=1 -3 3 -5 -6 12 7 -9 11 10 -12 -13 -14 14 18 -17 -18 -19 19 -21 -22 22 28 -25 -26 26 -28 -29 -30 -31
leaf_value=-0.19332711252636808 -16.980131896061348 10781.754165541917 26525.517872657827 -0.65826542946482924 -6.9067926983902312 -192.4224947715071 -5447.6783128872876 -0.78796455925372866 -186.09492010454559 -154.67167741245191 -2.6900783355370539 -4.1573367815206828 -0.050017372428500198 -0.05001119254855927 0.069323538597669682 -0.88731426345429787 -0.42007858003440535 19142.068086243358 -47.809733655208959 -0.44391741236409399 -2465.087520683911 -452.07097288554792 -2.721784141969986 -4.240735905212671 -25.842586009043682 -1534.6521541625946 -597.03203854416449 -886.61173961450595 -0.3392947440544794 -52.776332568116338
leaf_weight=331.01496646793117 0.14480339864415617 0.0018934123970809338 0.0010881704900240329 1.5719144238476213 0.079538451496270396 0.0010396497146240285 0.0011931797938654612 38.421819733692899 0.0010750093456481915 0.022298631063722318 0.86162224574350066 0.085215037375419023 0.0038938804328413233 0.0036725906429325187 429.18971251862189 3.7248543950608597 0.13582643633248417 0.0015078968827535698 0.010450803383719232 0.38394765974731943 0.0017646790365691842 0.0034282863232419905 0.5576859974213253 0.11647298402393493 0.015503174283367116 0.0010099680112904954 0.0014236325041565578 0.0012969996751054239 7.6820562550743396 0.1164070519298529
leaf_count=100688 288 1174 35 418 140 69 1261 43820 25 160 755 424 39 41 23331 3292 128 23 41 268 110 35 33 11 9 41 18 23 5424 124
internal_value=-0.0344925 122.399 -0.0565568 16.3381 328.596 4760.12 -0.0900073 -0.969361 -80.637 -0.0462475 -6.52411 -6.42393 -40.5889 -0.0388398 0.115895 6.59669 204.295 5571.69 0.0575735 -12.672 -397.016 -0.236389 -1.91426 -43.0822 -242.71 -712.355 -951.546 -1170.32 -1.22879 -11.3655
internal_weight=814.159 0.146697 814.013 1.65747 0.0855602 0.0060217 812.355 38.5093 0.0874832 773.846 0.883921 0.08629 0.00493353 772.962 433.452 3.86586 0.141007 0.00518049 429.586 0.396163 0.0122155 339.51 8.49528 0.139135 0.0226621 0.00715889 0.0037306 0.00230697 8.35615 0.674093
internal_count=182248 1462 180786 701 283 143 180085 45530 1710 134555 915 449 108 133640 27234 3484 192 64 23750 419 151 106406 5718 137 126 117 82 64 5581 157
is_linear=0
shrinkage=0.05


Tree=12
num_leaves=31
num_cat=0
split_feature=8 4 1 2 15 17 16 22 29 20 20 19 7 5 10 20 23 11 23 29 8 28 9 15 21 17 8 4 27 23
split_gain=139394 4.51712e+06 289985 470748 26196.3 810711 7.05757e+06 8.08868e+06 888692 1.03716e+06 209863 550835 25879.4 132026 27030.1 17016.8 19627 13540.1 433717 156958 355454 13326.8 98709.5 288549 12050.2 78558.8 241854 35080.9 65591 9985.96
threshold=2.3179481848431007 1.3926555578019502 -7.2887352387060895 0.90034877364742216 0.37307883641890655 2.1762507566196958 0.45132650876542507 1.0083969404894202 -0.33541791897282991 -0.42253020746833742 -0.065750225142978486 1.0506543491103002 -2.3118563706168342 -1.606976116109095 1.7536033340254253 -1.1498974159364048 -0.35532717348822845 2.2130257815044607 -0.33966730128762995 -0.34809185220761324 0.30508211318049955 0.93387538694634953 2.1418359407193654 0.75950272198952162 2.3224321649887605 0.86003752149406421 -4.8656061340096484 0.27374871817553709 0.13546435656626701 -0.34758255594436294
decision_type=2 2 2 2 2 2 2 2 2 2 2 2 2 2 2 2 2 2 2 2 2 2 2 2 2 2 2 2 2 2
left_child=4 2 3 -2 24 12 8 -8 9 -7 -10 -12 13 -6 15 16 -15 21 -19 20 -20 -14 -23 -24 -1 29 -27 -28 -29 -26
right_child=1 -3 -4 -5 5 6 7 -9 10 -11 11 -13 17 14 -16 -17 -18 18 19 -21 -22 22 23 -25 25 26 27 28 -30 -31
leaf_value=-0.030842616504222105 -0.050010914807852913 -2444.9817354385436 -4.15051295380505 -1377.7423589799337 -467.82613176290107 -207.94228738131224 -6146.5734942710587 -350.50524113391378 -9.9450209343962115 -2237.308780148885 -1132.2531579780489 -63.771553758489304 -0.73337016542536659 -0.050006484147417353 -227.92806914058116 -8.4236507107372542 -284.29433434692345 -1001.5722042662821 -1108.3722470244356 -3.9246531387486123 -72.84931771742491 -4.9564857476676503 -0.050097959583769371 -954.52572686216013 -48.884171668532161 -717.50010154003155 -10.066327750734928 -0.050009474945077438 -517.31362894476331 -3.1170951486581147
leaf_weight=739.52683332865593 0.0015905402258819695 0.0019427945342980471 0.12193643239675019 0.0010161920371109493 0.0017102198192917644 0.0016835643036794789 0.0010412390070184349 0.001426715792041377 0.060493061400203628 0.0010056950215274365 0.001545658829652333 0.0054926483818116796 85.208768868483958 0.0011986110216828556 0.0015359091965700808 0.04776909291420902 0.0012310586484671994 0.0010983281261474067 0.0010376043870885107 0.48160673104149687 0.0041163701109234035 0.040649643792601026 0.0028259061334633814 0.0011000689555579063 0.012284506273193607 0.0015330743410600393 0.0099837210353805866 0.0014467216851699052 0.001063287613947917 0.40007962299518207
leaf_count=115285 18 282 841 294 81 20 774 23 93 199 94 41 61870 53 85 470 52 79 71 327 28 93 33 91 110 132 73 26 34 576
internal_value=-0.139657 -52.625 -15.3058 -537.121 -0.131619 -0.958294 -167.87 -2795.89 -75.5062 -966.859 -40.0104 -298.417 -0.81688 -35.5992 -21.3109 -14.9891 -144.07 -0.795199 -9.10124 -6.86182 -281.322 -0.747668 -28.0796 -267.497 -0.0356876 -8.43876 -124.804 -52.0761 -219.173 -4.48052
internal_weight=825.947 0.126486 0.124543 0.00260673 825.821 85.8673 0.0726886 0.00246795 0.0702206 0.00268926 0.0675314 0.00703831 85.7946 0.0534449 0.0517347 0.0501988 0.00242967 85.7412 0.487859 0.486761 0.00515397 85.2533 0.0445756 0.00392598 739.953 0.426391 0.0140268 0.0124937 0.00251001 0.412364
internal_count=182248 1435 1153 312 180813 64577 1244 797 447 219 228 135 63333 741 660 575 105 62592 505 426 99 62087 217 124 116236 951 265 133 60 686
is_linear=0
shrinkage=0.05


Tree=13
num_leaves=31
num_cat=0
split_feature=1 19 14 11 14 4 29 14 15 14 17 6 22 26 7 26 4 20 14 19 4 0 16 15 4 3 12 15 15 11
split_gain=38997.3 504428 49028.8 23206.4 529015 1.12254e+07 36700.1 255328 18819.1 1.61222e+06 29222 15476.5 15902.8 11636.4 15642.4 49106.3 8211.02 12777 7610.61 50471 92140.9 6655.13 113939 28383.6 40838.7 6555.1 22744.8 64352.1 1.63485e+06 2.61985e+06
threshold=-9.5862116989641191 0.96506069442149667 -1.4730453340275798 1.8950992678671852 -1.2486221039956797 -0.5746108333175769 -0.34965110582324904 -0.48067401090487943 0.19267998811093653 -1.7707740913736147 2.1762507566196958 0.21816554222528103 -0.42505338876946847 -0.067237051549751986 -1.9216833452508348 0.76269257266118462 0.41077273542093007 -1.3953917040782946 -1.5326617345813547 -0.91206524047499338 0.18665680096832402 -1.8158639220083048 -1.7026758407627247 -2.4594721414986842 1.5750077431888503 1.2755770861303801 -0.096533731970629436 0.90564758140150214 0.91863408796039103 -1.3318442077635348
decision_type=2 2 2 2 2 2 2 2 2 2 2 2 2 2 2 2 2 2 2 2 2 2 2 2 2 2 2 2 2 2
left_child=1 -1 -3 8 5 -5 7 -6 21 -10 13 -9 -13 -11 15 16 -15 -18 19 20 -16 22 -2 24 -24 -20 27 -27 29 -29
right_child=3 2 -4 4 6 -7 -8 11 9 10 -12 12 -14 14 18 -17 17 -19 25 -21 -22 -23 23 -25 -26 26 -28 28 -30 -31
leaf_value=-363.12961808626511 -347.92920499107277 -57.821840583464507 -0.21915962853670046 -36.871417193554841 -632.31697238727497 -5248.8180209256516 -1.2891950832253993 -2.4128333573356437 -305.47456533648545 -0.31885970717274487 -18.27072036697713 -25.277529574939621 -243.78539166166212 -8.818487944126387 -580.30241809881215 -383.14067577335283 -26.278501975694311 -245.84527222950953 -1.34699141709402 -5.6024236154747022 -0.050016112250076572 -0.014132554286422542 -0.05000610378849385 -3.0557004902632232 -392.35856233348932 -2.9766536968769612 -1.7684161613555993 -83.368119531969569 -9.6950277639479765 -3242.9095432987883
leaf_weight=0.010190614795495878 0.0024428743344092054 0.041544362902641296 0.33336842062002692 0.032590444617450712 0.001818702062700797 0.0010669153194948064 1.8758607329865791 0.021161247349595954 0.043382568173540359 86.561434675131494 0.23359445875588747 0.0019819631288555684 0.0014359834259778373 0.011404485775741428 0.0011201796705065476 0.0010441392345825326 0.0019008524718977268 0.0010171066416663414 17.997279174964451 0.026902834338380855 0.0017576875129767799 716.91813682829923 0.0015735375306008595 0.24953355438214841 0.001146865467863628 0.18597085283566303 1.0581153585561707 0.0017981685239221168 0.067362594740060039 0.0010330099698039321
leaf_count=541 60 108 75 164 144 757 2906 95 2242 36808 333 10 39 287 41 103 33 189 29070 242 14 98668 31 1753 27 1583 4186 3 1665 71
internal_value=-0.129267 -16.0366 -6.60216 -0.121844 -5.58974 -202.087 -2.11305 -60.6573 -0.108988 -0.730189 -0.605645 -18.3582 -117.079 -0.566686 -1.67494 -52.1017 -27.9682 -102.812 -1.63488 -26.8916 -225.907 -0.0170034 -8.0979 -4.80691 -165.439 -1.59593 -5.0048 -18.373 -59.1641 -1236.19
internal_weight=825.689 0.385103 0.374913 825.304 1.93592 0.0336574 1.90226 0.0263979 823.368 106.195 106.152 0.0245792 0.00341795 105.918 19.3567 0.0153666 0.0143224 0.00291796 19.3413 0.0297807 0.00287787 717.173 0.254697 0.252254 0.0027204 19.3116 1.31428 0.256165 0.0701938 0.00283118
internal_count=182248 724 183 181524 4115 921 3194 288 177409 76870 74628 144 49 74295 37487 612 509 222 36875 297 55 100539 1871 1811 58 36578 7508 3322 1739 74
is_linear=0
shrinkage=0.05


end of trees

feature_importances:
V14=50
V4=34
Time=27
V12=25
V26=22
V17=20
V1=19
V7=19
V19=15
V27=15
V3=14
V5=14
V20=14
V8=13
V9=12
V11=12
V15=12
V16=12
V13=11
Amount=9
V10=7
V18=7
V21=6
V22=6
V23=6
V2=5
V6=4
V25=4
V24=3
V28=3

parameters:
[boosting: gbdt]
[objective: binary]
[metric: auc]
[tree_learner: serial]
[device_type: cpu]
[data_sample_strategy: bagging]
[data: ]
[valid: ]
[num_iterations: 100]
[learning_rate: 0.05]
[num_leaves: 31]
[num_threads: 0]
[seed: 42]
[deterministic: 0]
[force_col_wise: 0]
[force_row_wise: 0]
[histogram_pool_size: -1]
[max_depth: -1]
[min_data_in_leaf: 20]
[min_sum_hessian_in_leaf: 0.001]
[bagging_fraction: 0.8]
[pos_bagging_fraction: 1]
[neg_bagging_fraction: 1]
[bagging_freq: 5]
[bagging_seed: 400]
[bagging_by_query: 0]
[feature_fraction: 0.9]
[feature_fraction_bynode: 1]
[feature_fraction_seed: 30056]
[extra_trees: 0]
[extra_seed: 12879]
[early_stopping_round: 0]
[early_stopping_min_delta: 0]
[first_metric_only: 0]
[max_delta_step: 0]
[lambda_l1: 0]
[lambda_l2: 0]
[linear_lambda: 0]
[min_gain_to_split: 0]
[drop_rate: 0.1]
[max_drop: 50]
[skip_drop: 0.5]
[xgboost_dart_mode: 0]
[uniform_drop: 0]
[drop_seed: 17869]
[top_rate: 0.2]
[other_rate: 0.1]
[min_data_per_group: 100]
[max_cat_threshold: 32]
[cat_l2: 10]
[cat_smooth: 10]
[max_cat_to_onehot: 4]
[top_k: 20]
[monotone_constraints: ]
[monotone_constraints_method: basic]
[monotone_penalty: 0]
[feature_contri: ]
[forcedsplits_filename: ]
[refit_decay_rate: 0.9]
[cegb_tradeoff: 1]
[cegb_penalty_split: 0]
[cegb_penalty_feature_lazy: ]
[cegb_penalty_feature_coupled: ]
[path_smooth: 0]
[interaction_constraints: ]
[verbosity: -1]
[saved_feature_importance_type: 0]
[use_quantized_grad: 0]
[num_grad_quant_bins: 4]
[quant_train_renew_leaf: 0]
[stochastic_rounding: 1]
[linear_tree: 0]
[max_bin: 255]
[max_bin_by_feature: ]
[min_data_in_bin: 3]
[bin_construct_sample_cnt: 200000]
[data_random_seed: 175]
[is_enable_sparse: 1]
[enable_bundle: 1]
[use_missing: 1]
[zero_as_missing: 0]
[feature_pre_filter: 1]
[pre_partition: 0]
[two_round: 0]
[header: 0]
[label_column: ]
[weight_column: ]
[group_column: ]
[ignore_column: ]
[categorical_feature: ]
[forcedbins_filename: ]
[precise_float_parser: 0]
[parser_config_file: ]
[objective_seed: 16083]
[num_class: 1]
[is_unbalance: 0]
[scale_pos_weight: 577.287]
[sigmoid: 1]
[boost_from_average: 1]
[reg_sqrt: 0]
[alpha: 0.9]
[fair_c: 1]
[poisson_max_delta_step: 0.7]
[tweedie_variance_power: 1.5]
[lambdarank_truncation_level: 30]
[lambdarank_norm: 1]
[label_gain: ]
[lambdarank_position_bias_regularization: 0]
[eval_at: ]
[multi_error_top_k: 1]
[auc_mu_weights: ]
[num_machines: 1]
[local_listen_port: 12400]
[time_out: 120]
[machine_list_filename: ]
[machines: ]
[gpu_platform_id: -1]
[gpu_device_id: -1]
[gpu_use_dp: 0]
[num_gpu: 1]

end of parameters

pandas_categorical:[]
